float weights_softmax [] = {
  -0.146684,
  -0.0352331,
  -0.416228,
  0.156819,
  -0.159732,
  -0.0414021,
  -0.343428,
  -0.311886,
  -0.5035,
  0.0909157,
  -0.47523,
  0.366329,
  -0.0841449,
  -0.0114672,
  -0.214535,
  0.124035,
  -0.24595,
  -0.0994423,
  -0.328053,
  -0.165996,
  0.0249605,
  0.16453,
  -0.254489,
  -0.148927,
  -0.128061,
  0.197331,
  0.0015048,
  0.0892572,
  0.103104,
  -0.34724,
  -0.487641,
  -0.202966,
  -0.245572,
  0.0499907,
  -0.285692,
  0.311115,
  0.237555,
  -0.294038,
  -0.0712581,
  0.190116,
  -0.481209,
  0.24406,
  -0.413965,
  -0.374705,
  -0.0766775,
  -0.131675,
  -0.547477,
  0.141534,
  0.169958,
  -0.470578,
  -0.410367,
  -0.480836,
  0.107753,
  -0.0855046,
  0.216172,
  -0.311915,
  0.0147844,
  -0.133058,
  -0.638132,
  -0.460203,
  -0.466235,
  -0.218621,
  0.111656,
  -0.557351,
  -0.47684,
  -0.248091,
  0.0487996,
  0.325568,
  0.123887,
  -0.398601,
  0.0591847,
  -0.0539419,
  0.00985605,
  0.00830731,
  -0.191201,
  0.261918,
  0.0901898,
  -0.444058,
  -0.236348,
  -0.207685,
  -0.147582,
  0.000356499,
  -0.112748,
  -0.447722,
  -0.340678,
  -0.561569,
  -0.548437,
  -0.315975,
  -0.639869,
  0.0391091,
  0.0916804,
  0.102272,
  0.117547,
  -0.681277,
  -0.526478,
  -0.438043,
  -0.14033,
  -0.340518,
  0.210741,
  0.00457873,
  0.201954,
  -0.545307,
  -0.255896,
  -0.50565,
  -0.526042,
  -0.0172167,
  0.148622,
  0.147619,
  0.0083486,
  -0.53199,
  -0.538593,
  -0.380784,
  -0.698935,
  0.135426,
  -0.504346,
  0.17898,
  -0.0157855,
  -0.342622,
  0.273423,
  -0.362319,
  0.068322,
  0.0936108,
  -0.480675,
  -0.348789,
  -0.596931,
  -0.44051,
  0.0817679,
  -0.271792,
  -0.412571,
  0.130705,
  0.0903054,
  -0.314943,
  0.157118,
  -0.0844602,
  -0.0582941,
  0.128326,
  0.143063,
  -0.570603,
  0.0658847,
  -0.433656,
  0.226849,
  -0.0487499,
  -0.470758,
  -0.492349,
  -0.461735,
  0.0229624,
  -0.577877,
  -0.183533,
  -0.685966,
  0.349809,
  -0.516893,
  -0.479577,
  0.0823602,
  -0.323705,
  -0.4266,
  -0.706894,
  -0.394632,
  0.264423,
  0.115196,
  0.170141,
  -0.405389,
  -0.608438,
  -0.564357,
  -0.438439,
  0.160612,
  0.154046,
  -0.38945,
  -0.350003,
  -0.0433295,
  -0.272128,
  -0.390001,
  0.168912,
  0.101919,
  0.260528,
  -0.287521,
  -0.347674,
  -0.447297,
  -0.217461,
  0.130213,
  -0.239894,
  -0.344324,
  -0.608538,
  0.25898,
  -0.108681,
  -0.691128,
  0.322181,
  -0.0242509,
  -0.0252875,
  -0.0264391,
  0.162469,
  -0.0200542,
  0.0260652,
  -0.319504,
  -0.587085,
  0.0504497,
  -0.00380246,
  -0.20861,
  0.0370023,
  -0.380252,
  -0.638305,
  0.710512,
  -0.434001,
  0.0605547,
  0.371098,
  -0.517752,
  0.108032,
  -0.327345,
  -0.489996,
  -0.302491,
  -0.397893,
  -0.0319408,
  -0.318823,
  -0.484174,
  -0.36523,
  -0.605372,
  -0.103134,
  0.0976198,
  -0.527433,
  -0.573286,
  -0.665718,
  -0.456219,
  0.0156511,
  -0.397867,
  0.00210599,
  -0.340498,
  0.142528,
  -0.554776,
  -0.450787,
  0.172185,
  -0.00617842,
  -0.575498,
  -0.355056,
  0.0559061,
  -0.618527,
  -0.542843,
  0.277145,
  0.0766737,
  0.0865813,
  -0.669473,
  -0.622798,
  -0.397759,
  -0.0531654,
  -0.447764,
  -0.388027,
  0.059131,
  0.148738,
  0.233581,
  -0.328533,
  -0.546637,
  -0.446157,
  0.164971,
  -0.226876,
  0.140946,
  -0.121198,
  0.0200855,
  -0.411718,
  0.130378,
  0.0958799,
  0.0450425,
  -0.451297,
  -0.184233,
  -0.120329,
  0.208548,
  0.214366,
  0.0721387,
  -0.339048,
  -0.32206,
  -0.265322,
  -0.506475,
  0.0590054,
  -0.416864,
  0.00646396,
  -0.3505,
  -0.203092,
  -0.573748,
  0.060248,
  -0.61156,
  -0.465883,
  0.208442,
  -0.00461516,
  0.0979005,
  -0.0497633,
  -0.486068,
  -0.3828,
  -0.527035,
  -0.343149,
  -0.488312,
  0.159258,
  0.104868,
  -0.442035,
  0.0543236,
  0.164426,
  -0.440349,
  -0.432492,
  0.014797,
  0.0642267,
  -0.442446,
  0.076398,
  -0.255256,
  -0.472674,
  0.0368628,
  -0.432647,
  0.132882,
  -0.0697506,
  -0.581511,
  -0.373545,
  0.143439,
  -0.0139831,
  -0.51446,
  -0.355389,
  -0.415498,
  -0.283713,
  -0.0694662,
  -0.587606,
  -0.562755,
  -0.327687,
  -0.310876,
  0.0192452,
  -0.0215356,
  0.048142,
  -0.397403,
  0.0629176,
  0.0871058,
  -0.29769,
  -0.0705154,
  -0.0763743,
  0.0988465,
  0.035619,
  -0.339033,
  0.159111,
  0.0877564,
  -0.391739,
  -0.408861,
  0.121531,
  -0.442325,
  0.186229,
  -0.414729,
  0.146022,
  -0.573098,
  -0.655732,
  0.100662,
  -0.525595,
  0.0618001,
  -0.382224,
  0.0113566,
  -0.322404,
  -0.523121,
  -0.432391,
  0.00368884,
  -0.48172,
  0.030754,
  -0.104459,
  0.192963,
  -0.0115114,
  0.163741,
  0.0644501,
  0.111724,
  0.169371,
  0.0854792,
  0.0962866,
  -0.0300813,
  -0.00237102,
  -0.080107,
  -0.366558,
  -0.415364,
  -0.0273403,
  0.0236348,
  -0.53468,
  -0.458585,
  -0.290267,
  0.0902129,
  0.147371,
  0.0784775,
  0.148326,
  -0.513026,
  -0.213282,
  -0.0987799,
  -0.208909,
  -0.543658,
  -0.650244,
  -0.53644,
  0.150202,
  -0.0247356,
  0.0183808,
  0.0672703,
  -0.26597,
  0.0069745,
  -0.407328,
  -0.408741,
  0.114717,
  -0.407753,
  -0.459226,
  -0.421648,
  -0.430961,
  -0.0914048,
  -0.437294,
  -0.747858,
  -0.0133099,
  0.205445,
  -0.378953,
  -0.218468,
  0.136888,
  -0.447,
  0.0340311,
  -0.610699,
  -0.44557,
  -0.236135,
  -0.361857,
  0.00294845,
  -0.401904,
  0.107135,
  0.132966,
  -0.168176,
  0.274837,
  -0.440257,
  -0.564491,
  -0.0675729,
  -0.548345,
  0.208852,
  -0.0211807,
  -0.27774,
  -0.361708,
  0.176766,
  0.134531,
  0.162856,
  -0.554237,
  -0.376862,
  -0.448852,
  -0.0344724,
  -0.136893,
  -0.166239,
  0.0326649,
  -0.192356,
  0.1229,
  -0.511517,
  -0.0767907,
  -0.552426,
  -0.381867,
  -0.210434,
  0.210968,
  -0.0370663,
  -0.519898,
  -0.485418,
  0.186591,
  -0.420559,
  0.0958117,
  -0.353188,
  0.0170304,
  -0.216046,
  -0.109009,
  0.0612435,
  -0.543213,
  -0.29935,
  0.116183,
  0.0925713,
  -0.178582,
  -0.101525,
  -0.395882,
  -0.332902,
  -0.348817,
  -0.352661,
  -0.137893,
  -0.272919,
  -0.268538,
  0.110705,
  -0.165803,
  0.20966,
  0.0827239,
  0.0466911,
  -0.474491,
  0.107179,
  0.23027,
  -0.300125,
  -0.476915,
  -0.0251643,
  -0.101528,
  -0.200517,
  0.119772,
  0.165038,
  0.122904,
  -0.291846,
  -0.487237,
  -0.372988,
  -0.143241,
  -0.572671,
  0.09154,
  -0.164126,
  0.0873209,
  -0.684413,
  0.0435915,
  0.0973974,
  -0.688813,
  -0.467443,
  0.105329,
  0.00828013,
  -0.541185,
  0.140272,
  0.138785,
  -0.220648,
  -0.570097,
  -0.554505,
  -0.470642,
  -0.373832,
  -0.403884,
  -0.335742,
  -0.183151,
  -0.337094,
  -0.471478,
  -0.343217,
  0.128348,
  0.0942302,
  0.0325426,
  -0.469361,
  0.0912187,
  0.015865,
  -0.478342,
  -0.482426,
  0.137026,
  -0.3295,
  -0.429808,
  0.125999,
  -0.0560647,
  -0.0364599,
  -0.212503,
  0.111671,
  0.0699245,
  -0.382471,
  -0.255272,
  -0.258455,
  -0.532818,
  0.189915,
  0.0497101,
  0.0154838,
  -0.494136,
  0.175815,
  0.259474,
  -0.601688,
  -0.35234,
  -0.5597,
  -0.61288,
  -0.46874,
  -0.444369,
  -0.420723,
  -0.51013,
  -0.280472,
  0.135317,
  -0.264681,
  -0.459342,
  0.270665,
  0.1783,
  -0.433937,
  -0.412973,
  -0.287732,
  -0.418258,
  0.204252,
  0.134605,
  0.104487,
  0.181854,
  0.140158,
  -0.470358,
  -0.0918019,
  -0.0138652,
  0.0242827,
  0.0413824,
  -0.504077,
  0.1187,
  0.226991,
  -0.262211,
  -0.448498,
  -0.0565208,
  0.111203,
  0.134534,
  0.273491,
  -0.098891,
  -0.400987,
  -0.336621,
  0.117671,
  -0.536523,
  -0.594135,
  -0.383206,
  -0.11407,
  -0.582149,
  -0.37892,
  -0.598571,
  -0.41418,
  -0.197864,
  -0.451304,
  -0.283029,
  0.190252,
  -0.535409,
  -0.238474,
  0.0322598,
  -0.352707,
  0.186215,
  -0.402963,
  -0.0339617,
  -0.273881,
  0.205379,
  0.0042972,
  -0.477673,
  0.124571,
  0.0476226,
  -0.412479,
  0.0958304,
  -0.54552,
  0.0828609,
  -0.170881,
  -0.213388,
  0.02127,
  0.175351,
  -0.130127,
  0.113952,
  -0.543559,
  -0.435555,
  -0.369469,
  -0.49534,
  0.0978142,
  -0.346,
  -0.385141,
  -0.277312,
  -0.371551,
  -0.393487,
  0.0481668,
  0.12633,
  0.134728,
  -0.434273,
  0.0528085,
  -0.030734,
  0.0653309,
  -0.239117,
  -0.563758,
  -0.370477,
  0.260913,
  -0.532124,
  -0.1039,
  -0.37862,
  0.248731,
  -0.279576,
  -0.662713,
  -0.542517,
  -0.466734,
  -0.334622,
  -0.565523,
  -0.440061,
  -0.0534309,
  -0.187469,
  -0.160978,
  -0.273142,
  -0.566815,
  -0.365282,
  0.0131187,
  -0.0108889,
  -0.508809,
  -0.678157,
  0.149725,
  -0.518046,
  -0.483996,
  0.314529,
  0.138896,
  -0.152782,
  -0.043419,
  -0.386069,
  -0.195699,
  -0.433953,
  0.0874556,
  -0.430622,
  0.0861242,
  0.19352,
  0.0956668,
  -0.278824,
  0.108539,
  -0.279516,
  -0.23179,
  -0.334054,
  -0.421795,
  -0.411797,
  -0.294746,
  0.197556,
  0.224865,
  -0.11174,
  0.209438,
  -0.366721,
  -0.367823,
  -0.244723,
  -0.560129,
  -0.447478,
  0.0783595,
  -0.498219,
  -0.364963,
  0.0715884,
  -0.149206,
  -0.444082,
  0.0680867,
  -0.347134,
  -0.445681,
  -0.489839,
  0.0263345,
  -0.506028,
  0.10038,
  -0.401016,
  0.279022,
  -0.314297,
  -0.287228,
  -0.0219596,
  0.138981,
  -0.3684,
  0.0632678,
  -0.165284,
  0.150205,
  0.142721,
  -0.0814843,
  0.0435812,
  -0.0280013,
  -0.206734,
  0.119613,
  0.149374,
  -0.329611,
  -0.00494861,
  -0.202682,
  -0.114786,
  0.173668,
  -0.374937,
  0.0403387,
  0.117975,
  0.122372,
  -0.42799,
  0.0685522,
  -0.0785258,
  -0.740215,
  -0.389776,
  0.163339,
  0.1156,
  0.105742,
  0.0764439,
  -0.425107,
  -0.675504,
  0.0391584,
  -0.373646,
  -0.188073,
  -0.566103,
  -0.166791,
  -0.229222,
  -0.527795,
  0.0373963,
  -0.523045,
  0.0677124,
  -0.288181,
  -0.262375,
  -0.0567274,
  -0.0122077,
  0.183916,
  -0.314029,
  0.114068,
  0.178346,
  -0.360339,
  -0.409868,
  -0.357398,
  -0.146768,
  -0.104181,
  -0.338692,
  -0.378446,
  0.214466,
  -0.340501,
  0.0973212,
  -0.54366,
  -0.165174,
  -0.469526,
  -0.579987,
  -0.479158,
  0.0811336,
  -0.17994,
  -0.524536,
  0.183266,
  0.167447,
  0.129184,
  0.100445,
  0.128997,
  -0.0214925,
  -0.638807,
  -0.163031,
  -0.380652,
  -0.668463,
  -0.31334,
  -0.502371,
  -0.357594,
  -0.236422,
  0.135697,
  0.099813,
  0.092063,
  0.152916,
  0.15783,
  -0.168249,
  -0.298,
  0.218421,
  -0.210306,
  -0.00318694,
  0.182617,
  -0.125648,
  0.14089,
  -0.350726,
  0.402375,
  0.0854419,
  0.177013,
  -0.332008,
  -0.346468,
  0.0769408,
  -0.354155,
  -0.417957,
  0.150456,
  -0.278248,
  -0.298116,
  -0.391066,
  -0.49812,
  -0.121519,
  -0.645094,
  -0.689644,
  0.235847,
  -0.557361,
  0.0939239,
  -0.321586,
  0.055982,
  0.161728,
  0.0907536,
  -0.217279,
  0.015344,
  -0.390874,
  -0.0253608,
  -0.345002,
  -0.0613381,
  -0.330636,
  0.0464571,
  -0.0912174,
  -0.450202,
  -0.390193,
  -0.178038,
  -0.208702,
  0.0857254,
  0.124449,
  -0.475479,
  -0.494792,
  -0.209521,
  0.0549311,
  -0.0396811,
  -0.400957,
  0.227057,
  -0.340421,
  0.426255,
  0.22485,
  -0.00878762,
  -0.396428,
  -0.413626,
  0.0280189,
  0.107809,
  -0.405686,
  0.0422211,
  -0.30945,
  -0.616267,
  0.0298176,
  0.0493449,
  0.0551849,
  -0.305291,
  -0.696031,
  -0.331499,
  -0.324847,
  -0.349903,
  -0.249299,
  -0.320853,
  -0.423045,
  -0.450609,
  -0.24852,
  -0.457598,
  -0.213745,
  -0.316381,
  -0.308216,
  -0.0499813,
  0.159874,
  0.0367031,
  -0.0234377,
  -0.272998,
  -0.270335,
  -0.522596,
  0.187921,
  -0.160155,
  -0.244447,
  0.125859,
  0.0941431,
  -0.348119,
  -0.334828,
  -0.340276,
  -0.442539,
  -0.322926,
  0.115376,
  -0.253657,
  -0.645651,
  -0.73297,
  -0.613751,
  0.1163,
  -0.388208,
  0.0549443,
  0.0389419,
  -0.427954,
  0.0310098,
  -0.158009,
  -0.435382,
  -0.564011,
  -0.528274,
  -0.601425,
  0.10679,
  0.133158,
  -0.371936,
  -0.441517,
  0.046681,
  -0.592087,
  0.166523,
  -0.338777,
  -0.156309,
  -0.453954,
  0.13791,
  -0.274105,
  0.26238,
  0.0317963,
  0.178134,
  -0.443308,
  -0.119704,
  -0.432349,
  -0.252591,
  -0.455254,
  -0.332806,
  0.05154,
  -0.184183,
  -0.403441,
  -0.338248,
  -0.459114,
  -0.250248,
  0.0234021,
  -0.459661,
  -0.42261,
  -0.492682,
  0.250888,
  -0.458958,
  0.0164739,
  -0.277577,
  0.127567,
  -0.0604343,
  -0.297186,
  0.0615188,
  -0.342656,
  0.0572496,
  -0.552751,
  -0.335562,
  -0.493153,
  -0.0168875,
  -0.659348,
  -0.369667,
  -0.286964,
  0.223815,
  -0.472539,
  -0.414822,
  -0.490503,
  -0.0226402,
  -0.307099,
  0.094122,
  -0.614171,
  0.359362,
  0.244096,
  -0.663051,
  0.0955039,
  0.0152317,
  -0.212958,
  -0.400841,
  -0.522677,
  -0.180931,
  0.154844,
  0.0801027,
  -0.036099,
  -0.461905,
  -0.505725,
  -0.315414,
  0.184435,
  -0.649648,
  -0.439313,
  0.222395,
  -0.0580964,
  0.200524,
  0.0672297,
  -0.535129,
  0.0876772,
  -0.441868,
  0.104585,
  0.0749387,
  0.108138,
  0.0934039,
  -0.0367851,
  0.151935,
  -0.253001,
  -0.495917,
  0.100171,
  -0.356587,
  0.134483,
  0.0239565,
  0.0346113,
  -0.519969,
  -0.570543,
  -0.641223,
  0.404905,
  -0.393685,
  -0.204553,
  -0.410264,
  0.070157,
  -0.608678,
  0.124502,
  -0.40025,
  -0.223166,
  -0.0684606,
  0.135253,
  0.256189,
  -0.351037,
  0.107769,
  0.148765,
  -0.527464,
  0.21415,
  0.141515,
  0.074224,
  0.0186899,
  0.113742,
  -0.121854,
  -0.404519,
  0.139998,
  0.103585,
  -0.224488,
  -0.5783,
  0.00910104,
  -0.298266,
  -0.56391,
  -0.485554,
  -0.504377,
  0.0671939,
  0.0443395,
  -0.432833,
  -0.0211724,
  0.154728,
  -0.0508041,
  0.0903542,
  -0.0435167,
  0.00759359,
  -0.616762,
  -0.352414,
  0.121227,
  -0.5295,
  -0.42066,
  0.0593697,
  0.101072,
  -0.0429418,
  -0.219799,
  0.100427,
  -0.613903,
  -0.46481,
  -0.618411,
  0.24064,
  0.194687,
  -0.532968,
  -0.297983,
  -0.489234,
  -0.0186671,
  -0.274318,
  0.081381,
  -0.606505,
  0.148741,
  -0.588765,
  0.179905,
  -0.409712,
  0.0482846,
  -0.622851,
  -0.650128,
  -0.00912612,
  -0.486746,
  0.046254,
  -0.32356,
  -0.259284,
  -0.599665,
  -0.0379059,
  0.230144,
  0.0530933,
  -0.352474,
  -0.458671,
  -0.590168,
  -0.0682825,
  0.00756513,
  0.171701,
  -0.0492774,
  -0.0995105,
  -0.309275,
  -0.354005,
  0.0941477,
  -0.133244,
  -0.134784,
  -0.27572,
  -0.108706,
  -0.303628,
  -0.445114,
  -0.216455,
  0.0397226,
  -0.358409,
  -0.452317,
  0.141238,
  -0.305218,
  0.116837,
  0.0523715,
  0.0886021,
  -0.216172,
  0.0821025,
  -0.468298,
  0.0253356,
  -0.553251,
  -0.381128,
  -0.432138,
  -0.475101,
  -0.468812,
  -0.470635,
  -0.166557,
  -0.370228,
  -0.509354,
  -0.503286,
  0.110978,
  -0.596998,
  -0.049928,
  0.0749346,
  0.0853833,
  0.0571487,
  0.0778637,
  -0.451422,
  0.105193,
  -0.226086,
  -0.422955,
  0.120887,
  0.203776,
  0.086395,
  0.102344,
  0.107883,
  -0.449115,
  -0.489553,
  0.0874004,
  -0.0536134,
  -0.0702333,
  0.0303145,
  -0.443044,
  -0.557862,
  0.0977438,
  -0.444542,
  0.0933582,
  -0.142593,
  -0.0211456,
  -0.416617,
  -0.691634,
  -0.335169,
  0.07843,
  -0.513437,
  -0.0358797,
  -0.213093,
  -0.450471,
  -0.548655,
  0.151636,
  0.000593096,
  -0.170154,
  0.00850362,
  0.0913145,
  0.146199,
  -0.340029,
  0.14126,
  -0.461728,
  0.0490125,
  0.19679,
  -0.00419894,
  -0.426579,
  -0.580706,
  -0.461386,
  -0.101292,
  -0.350715,
  0.0690527,
  -0.073697,
  -0.506909,
  -0.225568,
  -0.073268,
  -0.374772,
  -0.279859,
  0.137891,
  -0.240991,
  -0.302658,
  -0.203095,
  -0.215441,
  -0.0815448,
  -0.360172,
  -0.266911,
  -0.633275,
  0.138969,
  0.173957,
  -0.286481,
  -0.454873,
  0.145273,
  0.114964,
  -0.026914,
  0.0567629,
  -0.496143,
  0.0592321,
  -0.432647,
  0.111878,
  -0.306663,
  0.183574,
  -0.0875003,
  -0.149622,
  0.0739589,
  -0.320588,
  -0.26288,
  -0.431165,
  -0.606469,
  -0.619499,
  0.156318,
  -0.01512,
  -0.46552,
  -0.250112,
  -0.467136,
  0.0153117,
  -0.427172,
  -0.0349483,
  -0.209113,
  -0.624408,
  0.0464433,
  0.0742296,
  -0.382493,
  -0.380966,
  -0.310936,
  0.0500905,
  0.157939,
  0.166245,
  -0.290981,
  0.112588,
  -0.362642,
  0.195576,
  -0.273916,
  -0.380081,
  0.0977169,
  0.0365045,
  -0.27321,
  0.100309,
  0.0444973,
  0.0960277,
  -0.58968,
  0.10294,
  -0.569248,
  0.0743198,
  -0.330133,
  0.0624067,
  -0.560241,
  -0.0646191,
  0.0374835,
  -0.492982,
  0.0398422,
  -0.296943,
  -0.52281,
  -0.566112,
  -0.100926,
  -0.632593,
  0.0995133,
  0.11853,
  0.0889888,
  -0.546599,
  -0.535221,
  -0.0921316,
  -0.362135,
  -0.51348,
  -0.460825,
  0.211761,
  -0.467176,
  0.0713108,
  0.130827,
  -0.211991,
  0.224213,
  -0.317826,
  0.0881941,
  0.0474903,
};