float weights_layer1 [] = {
  0.0703268,
  0.0650883,
  -0.00346294,
  0.0722496,
  -0.0708161,
  -0.116282,
  0.018431,
  0.045023,
  0.0672755,
  0.114751,
  -0.311818,
  -0.16159,
  0.221286,
  0.162196,
  0.213203,
  0.018217,
  0.445002,
  0.0152209,
  -0.15898,
  -0.0929242,
  0.185181,
  0.23539,
  0.0278392,
  -0.0999362,
  -0.158417,
  0.00218796,
  -0.0684952,
  0.0953326,
  -0.0805597,
  -0.117906,
  0.0774433,
  0.225108,
  0.111414,
  -0.00426095,
  -0.178309,
  0.0845693,
  -0.0470043,
  0.124017,
  -0.0865727,
  -0.533111,
  0.150077,
  0.0182479,
  0.0365154,
  -0.0626859,
  -0.320245,
  -0.160621,
  0.0337486,
  0.0563786,
  -0.0268512,
  -0.101506,
  -0.0510096,
  -0.18679,
  -0.165786,
  -0.0844554,
  0.07023,
  0.0522263,
  0.0313128,
  0.157203,
  0.0992887,
  0.0652769,
  0.0883682,
  0.16328,
  0.126046,
  0.23203,
  -0.0701832,
  0.0315271,
  -0.0298538,
  0.0962509,
  -0.0673671,
  -0.012683,
  -0.0793941,
  -0.223553,
  -0.409098,
  -0.431688,
  -0.265366,
  0.0259021,
  0.176002,
  0.040434,
  0.0570065,
  -0.211502,
  0.257815,
  -0.0604876,
  0.00376486,
  0.0695395,
  0.145466,
  0.0459758,
  0.083633,
  -0.0262543,
  -0.015453,
  0.275691,
  -0.427134,
  -0.547317,
  -0.716194,
  -0.382278,
  0.129822,
  0.0536683,
  -0.201055,
  -0.413129,
  -0.156991,
  -0.0907402,
  0.0567263,
  -0.16738,
  0.2348,
  0.114563,
  -0.316807,
  0.152792,
  0.105339,
  0.177664,
  0.0721658,
  0.249049,
  -0.149942,
  0.202851,
  0.121563,
  0.175164,
  0.10733,
  -0.280791,
  0.085071,
  0.144152,
  0.131424,
  0.151036,
  -0.522728,
  -0.187758,
  -0.473011,
  -0.0453068,
  -0.487265,
  0.0458065,
  0.00790645,
  -0.00386057,
  0.157006,
  0.0947021,
  -0.16853,
  -0.177824,
  -0.0238073,
  0.00817111,
  0.139446,
  -0.123338,
  -0.323017,
  -0.232082,
  0.287438,
  0.089244,
  -0.0848294,
  -0.115545,
  -0.102823,
  0.221197,
  0.471754,
  -0.119694,
  -0.164082,
  -0.0984061,
  -0.177705,
  0.0350856,
  0.0315848,
  0.107551,
  0.144208,
  -0.0663673,
  0.0583457,
  -0.0500371,
  -0.223989,
  -0.191364,
  -0.309765,
  -0.0812719,
  -0.131025,
  -0.256835,
  -0.517944,
  -0.547206,
  -0.31569,
  -0.128201,
  -0.409975,
  -0.39198,
  -0.335961,
  -0.0356099,
  0.0381546,
  0.274288,
  0.15375,
  0.227077,
  0.223472,
  0.0768661,
  0.0258122,
  -0.142388,
  -0.0824793,
  0.0389866,
  0.0141127,
  0.0538449,
  -0.00676039,
  -0.286012,
  -0.324491,
  -0.0383191,
  -0.0341955,
  0.0387597,
  -0.122837,
  -0.197056,
  -0.170881,
  -0.232129,
  -0.230939,
  -0.0866831,
  -0.0348974,
  -0.0861177,
  -0.272942,
  -0.346778,
  -0.105721,
  0.00449303,
  -0.330874,
  -0.429676,
  -0.357882,
  -0.0588182,
  -0.0353368,
  -0.18742,
  -0.350407,
  -0.250551,
  -0.296238,
  0.0837118,
  -0.379037,
  -0.378614,
  -0.322112,
  -0.190301,
  0.328498,
  -0.217012,
  -0.334375,
  -0.0781173,
  -0.103722,
  0.136894,
  -0.211291,
  -0.252029,
  -0.179266,
  0.048031,
  0.0689431,
  0.213716,
  0.0482771,
  -0.040264,
  -0.0810634,
  0.0957685,
  -0.0427128,
  0.136321,
  0.168303,
  0.046166,
  0.104681,
  0.00424009,
  0.021521,
  -0.0217224,
  -0.0909339,
  -0.295803,
  -0.115942,
  -0.180116,
  -0.0919512,
  -0.123255,
  -0.455528,
  -0.341711,
  -0.0626058,
  0.17996,
  -0.0629675,
  -0.292555,
  0.272672,
  0.129021,
  0.104266,
  0.0298162,
  0.0124059,
  0.254548,
  -0.0491491,
  -0.0114839,
  0.0279284,
  0.09152,
  -0.259513,
  -0.0693353,
  -0.102579,
  0.246396,
  -0.0729007,
  -0.364396,
  -0.42423,
  -0.122442,
  0.0159957,
  -0.462021,
  -0.389167,
  -0.0813578,
  -0.0441857,
  -0.215673,
  -0.532778,
  0.0774851,
  0.101928,
  0.0211063,
  -0.0291013,
  -0.0580621,
  -0.0662424,
  -0.107728,
  -0.147827,
  -0.168442,
  -0.191407,
  -0.258498,
  -0.327778,
  0.0975207,
  0.142321,
  0.0469327,
  -0.381599,
  -0.202411,
  -0.0860007,
  0.0723587,
  0.0941645,
  -0.180136,
  0.131537,
  0.108856,
  -0.0173876,
  -0.182232,
  0.0775965,
  0.041884,
  0.343576,
  0.0464056,
  -0.168105,
  0.0870259,
  -0.0940494,
  -0.194828,
  -0.538934,
  -0.628315,
  -0.0674431,
  -0.295553,
  -0.288896,
  -0.276264,
  -0.275685,
  -0.290294,
  -0.157729,
  0.135595,
  -0.0210884,
  -0.0554784,
  -0.206352,
  0.0995717,
  0.158366,
  -0.0485735,
  -0.0469995,
  -0.41684,
  -0.509212,
  -0.130123,
  -0.132618,
  0.113412,
  -0.148011,
  -0.0638113,
  0.0726976,
  -0.205764,
  -0.00588612,
  0.0185809,
  0.0931827,
  0.144972,
  -0.149132,
  -0.0280486,
  0.0591443,
  0.079195,
  0.0433724,
  -0.331564,
  -0.132893,
  -0.00842432,
  -0.406784,
  -0.482678,
  0.140028,
  0.17576,
  0.00349439,
  -0.224419,
  -0.255222,
  0.012277,
  0.0206954,
  -0.306097,
  -0.27874,
  -0.198498,
  -0.0667215,
  0.21692,
  -0.271261,
  -0.120385,
  -0.0820958,
  -0.0510432,
  0.165958,
  -0.115501,
  0.269891,
  0.0115045,
  0.190517,
  -0.0546764,
  0.027957,
  0.124813,
  0.132758,
  0.102469,
  -0.313845,
  0.0930641,
  0.0270234,
  0.0166261,
  0.031986,
  0.0138408,
  -0.177556,
  0.0682534,
  -0.0576191,
  0.107319,
  -0.0271883,
  -0.35052,
  0.0159465,
  0.033517,
  0.039449,
  -0.327234,
  -0.0188395,
  0.08918,
  -0.0252275,
  -0.166544,
  -0.626881,
  0.0902036,
  0.257774,
  0.135087,
  -0.208062,
  -0.470159,
  -0.156234,
  -0.173969,
  -0.140781,
  0.0182393,
  -0.00767439,
  -0.0345606,
  -0.0185373,
  -0.346039,
  -0.47146,
  -0.211766,
  0.233438,
  0.00403365,
  0.23131,
  0.145417,
  -0.319332,
  0.0190262,
  0.0394593,
  -0.0535793,
  0.0567568,
  0.035523,
  0.141489,
  -0.170096,
  -0.0149848,
  -0.144545,
  -0.0170493,
  0.012307,
  0.29027,
  0.0895535,
  0.251999,
  0.164217,
  0.155403,
  0.104664,
  0.0560235,
  0.0942016,
  0.285177,
  0.293771,
  0.08733,
  0.0603687,
  0.14974,
  0.302138,
  0.203591,
  -0.181972,
  0.0855596,
  -0.0437828,
  0.164956,
  -0.0171363,
  0.0430106,
  -0.133163,
  0.066245,
  -0.0116033,
  0.0696219,
  0.0566434,
  0.0610983,
  -0.00178455,
  0.129155,
  -0.221918,
  0.0175296,
  0.0824883,
  0.105189,
  0.00296522,
  -0.171397,
  -0.399018,
  -0.561317,
  -0.0614364,
  -0.0221052,
  0.282618,
  0.166712,
  -0.0754209,
  -0.478789,
  -0.219901,
  0.0264873,
  0.168277,
  -0.0824458,
  -0.111813,
  -0.186954,
  0.0111413,
  -0.165317,
  -0.00537293,
  0.115802,
  0.166797,
  -0.493268,
  -0.694307,
  -0.474481,
  -0.0196433,
  0.432282,
  0.167505,
  -0.126176,
  -0.614305,
  -0.842679,
  -0.520069,
  0.116303,
  -0.0860189,
  -0.281113,
  -0.385005,
  -0.177368,
  0.0960745,
  0.101597,
  -0.0665989,
  -0.116007,
  -0.129609,
  -0.0114727,
  0.273683,
  -0.122332,
  0.144209,
  0.279623,
  -0.0665341,
  -0.121096,
  0.135911,
  0.162713,
  0.391342,
  -0.197194,
  -0.306524,
  -0.308389,
  -0.120557,
  0.210964,
  0.0718581,
  -0.0291408,
  -0.0816909,
  -0.279202,
  -0.230253,
  -0.111299,
  0.0236208,
  -0.064528,
  -0.0769996,
  -0.182319,
  -0.224367,
  -0.0625719,
  -0.172457,
  -0.0793535,
  0.146921,
  0.231335,
  0.186032,
  -0.121733,
  -0.163667,
  0.0303731,
  0.128186,
  -0.00629631,
  -0.0540911,
  0.0722549,
  0.0937869,
  0.11311,
  -0.0329964,
  -0.0206004,
  -0.192912,
  0.0593467,
  0.147435,
  0.0772754,
  0.117513,
  0.0988544,
  0.11549,
  -0.0282673,
  -0.1805,
  -0.267505,
  -0.197219,
  -0.147404,
  -0.427267,
  -0.622446,
  -0.734749,
  -0.538945,
  -0.314321,
  -0.447606,
  -0.372111,
  -0.415135,
  -0.337131,
  -0.077437,
  -0.232543,
  -0.10147,
  0.0163503,
  -0.0235859,
  0.107836,
  0.0118194,
  -0.0873555,
  -0.0276378,
  0.00621781,
  0.0268236,
  -0.13544,
  -0.142652,
  0.103935,
  0.0995821,
  0.121059,
  -0.360626,
  -0.624244,
  -0.25337,
  -0.00777053,
  0.0510075,
  -0.181909,
  -0.196861,
  -0.600157,
  -0.0963994,
  0.0618031,
  0.11375,
  0.00312535,
  -0.0377758,
  -0.284795,
  -0.057024,
  -0.0720006,
  -0.0796763,
  -0.0637443,
  -0.121415,
  -0.118568,
  -0.550174,
  -0.363723,
  -0.487783,
  -0.374138,
  -0.270854,
  -0.129006,
  -0.116115,
  0.215961,
  0.156908,
  0.0777844,
  -0.0567506,
  -0.110664,
  0.26,
  0.0476329,
  0.163633,
  0.29186,
  -0.261559,
  -0.0516457,
  0.0305031,
  0.0583716,
  -0.0935091,
  0.30544,
  0.216499,
  0.153833,
  -0.0449302,
  0.0162035,
  -0.00322918,
  0.028501,
  -0.00173393,
  0.0119728,
  0.0323587,
  0.206707,
  0.0352886,
  0.387568,
  -0.123551,
  0.138606,
  0.0206592,
  0.13178,
  0.0632706,
  0.156103,
  0.0718525,
  -0.00113209,
  0.196616,
  0.0592564,
  0.0159774,
  -0.311802,
  -0.0689374,
  -0.122371,
  0.00448523,
  -0.0250882,
  0.0957108,
  -0.0233356,
  -0.022698,
  -0.0287086,
  -0.0879526,
  -0.113414,
  -0.0792506,
  -0.117484,
  -0.102082,
  -0.0386075,
  0.086355,
  0.0947507,
  0.0194712,
  0.0713605,
  0.119894,
  0.048282,
  -0.0695073,
  -0.119415,
  -0.0488449,
  -0.00279099,
  -0.165827,
  -0.128821,
  -0.0368302,
  -0.145629,
  -0.0280708,
  0.291069,
  -0.0485981,
  0.135082,
  0.236881,
  0.109601,
  0.123648,
  -0.153453,
  -0.233841,
  -0.312049,
  -0.48048,
  -0.290171,
  -0.0898513,
  0.0825715,
  -0.128685,
  -0.0217368,
  0.0915729,
  0.0144592,
  0.0557369,
  0.106477,
  -0.0769382,
  0.02944,
  0.152299,
  -0.0368797,
  0.109681,
  0.0176665,
  0.0339223,
  -0.0114366,
  0.144536,
  0.220635,
  0.157777,
  -0.0690197,
  -0.123389,
  -0.218154,
  -0.0794777,
  -0.126781,
  -0.00356641,
  -0.0473734,
  -0.13721,
  -0.0852084,
  -0.0657385,
  -0.0206188,
  0.0521818,
  -0.0279514,
  -0.033828,
  0.0753277,
  0.0457129,
  0.129788,
  0.123889,
  0.215511,
  0.0284288,
  -0.235924,
  -0.211506,
  0.15229,
  -0.0592868,
  0.109522,
  0.142855,
  -0.000879483,
  0.145335,
  0.244851,
  -0.0328626,
  0.151696,
  -0.147636,
  0.0416174,
  0.0322226,
  0.0344832,
  0.0672815,
  0.0186562,
  -0.00644379,
  -0.0977403,
  -0.198352,
  0.0403154,
  -0.0349223,
  -0.0176617,
  0.0727659,
  -0.0315187,
  -0.642712,
  -0.691835,
  -0.252483,
  -0.20596,
  -0.4388,
  -0.38497,
  -0.130693,
  -0.102489,
  -0.16108,
  -0.536529,
  0.105635,
  0.0776164,
  -0.034265,
  -0.135042,
  -0.296814,
  0.125844,
  -0.00828108,
  0.0650406,
  -0.0284804,
  -0.254738,
  0.235902,
  0.0574618,
  -0.0756424,
  -0.246601,
  -0.121328,
  -0.314963,
  -0.272692,
  -0.106724,
  -0.0550419,
  -0.143309,
  -0.166166,
  -0.11295,
  -0.124374,
  -0.0436473,
  -0.148475,
  -0.0137437,
  0.000851021,
  0.0706945,
  0.0597616,
  -0.0937314,
  -0.0325868,
  -0.0602256,
  -0.128659,
  -0.0377437,
  -0.088043,
  -0.211249,
  -0.376216,
  -0.374692,
  -0.0421823,
  -0.0362292,
  0.0972429,
  0.0116146,
  0.0661276,
  -0.0709369,
  -0.0290693,
  -0.0804959,
  0.157439,
  -0.0703275,
  -0.123373,
  -0.364805,
  -0.58445,
  -0.06444,
  0.298041,
  -0.29195,
  -0.449245,
  -0.30886,
  -0.212208,
  0.246784,
  -0.0640979,
  -0.444206,
  -0.0312445,
  -0.27349,
  0.00136265,
  -0.0823618,
  -0.410632,
  -0.19688,
  -0.0528812,
  -0.128176,
  0.128403,
  -0.291967,
  -0.0983844,
  -0.721979,
  -0.064122,
  0.00586498,
  -0.297047,
  -0.375259,
  -0.503413,
  -0.227937,
  0.127973,
  0.0136224,
  0.0618901,
  -0.0942115,
  -0.151275,
  0.0797905,
  0.29318,
  0.195801,
  -0.122877,
  -0.15721,
  0.0321697,
  0.114806,
  0.0436598,
  0.0018359,
  0.0211539,
  -0.000710714,
  0.0718864,
  -0.0826933,
  -0.0123346,
  -0.104532,
  -0.122707,
  -0.0505448,
  0.00788339,
  -0.0689469,
  -0.0973109,
  -0.132852,
  -0.0703366,
  0.0651021,
  0.0489219,
  -0.40547,
  -0.0310111,
  0.145304,
  0.109523,
  0.0772492,
  -0.553525,
  -0.176224,
  0.122709,
  0.198897,
  0.0165315,
  -0.070311,
  0.0329153,
  0.258468,
  -0.0124153,
  -0.058049,
  -0.125454,
  0.0220716,
  0.23023,
  -0.0161805,
  -0.10279,
  -0.192036,
  -0.136355,
  0.144168,
  0.00670525,
  -0.0805554,
  -0.438746,
  -0.510296,
  -0.0620732,
  0.234123,
  0.0172621,
  -0.655086,
  -0.545503,
  -0.182073,
  0.0109969,
  -0.123655,
  0.0113485,
  0.13008,
  0.0160381,
  -0.278571,
  -0.508101,
  -0.256462,
  0.261118,
  0.153545,
  -0.161486,
  -0.088995,
  -0.264161,
  -0.0437002,
  0.0862487,
  0.0850999,
  0.0255181,
  -0.0508195,
  -0.0643581,
  0.243305,
  0.0354915,
  -0.0206543,
  -0.00045569,
  -0.214651,
  0.0275372,
  -0.0197306,
  -0.00212182,
  -0.0409658,
  -0.226722,
  -0.0937741,
  -0.106197,
  -0.295615,
  -0.401379,
  -0.204479,
  -0.00164502,
  -0.1435,
  -0.757916,
  -0.489293,
  -0.237246,
  0.0465112,
  -0.378642,
  -0.51329,
  -0.46944,
  -0.274415,
  -0.224012,
  -0.365077,
  -0.266295,
  -0.328446,
  -0.482476,
  -0.340853,
  -0.117111,
  0.0170857,
  0.0209284,
  0.0114701,
  -0.404715,
  -0.0921606,
  0.116721,
  0.137279,
  -0.239051,
  0.198343,
  0.00500053,
  -0.0712837,
  -0.0216903,
  -0.0990414,
  0.217685,
  0.27954,
  0.189658,
  -0.161075,
  -0.186777,
  -0.162721,
  -0.0639216,
  0.175207,
  -0.290355,
  -0.123837,
  -0.361867,
  0.0249721,
  -0.0516977,
  0.0400711,
  0.00300825,
  0.226172,
  0.119061,
  -0.0295888,
  -0.176489,
  0.00950209,
  0.030505,
  0.101347,
  0.062788,
  -0.416543,
  -0.0920646,
  0.0645511,
  0.115799,
  0.143365,
  -0.429445,
  0.161365,
  0.0943566,
  0.302853,
  0.0180954,
  -0.480096,
  -0.0338868,
  -0.221398,
  -0.184199,
  0.0129014,
  -0.179935,
  -0.0962961,
  -0.117572,
  0.100332,
  -0.144639,
  -0.073136,
  -0.225217,
  -0.0544097,
  0.161665,
  0.0293638,
  -0.0392326,
  -0.0739814,
  -0.0359429,
  0.1131,
  0.0709664,
  0.102032,
  0.0452109,
  0.0467175,
  -0.0969575,
  -0.315846,
  -0.149028,
  -0.0963704,
  -0.0512841,
  0.0455689,
  0.00283958,
  -0.0744547,
  -0.0962152,
  0.192454,
  0.14627,
  0.18337,
  0.306146,
  -0.1437,
  -0.155825,
  0.0711625,
  0.0284165,
  0.0060492,
  -0.126791,
  -0.175725,
  -0.0845749,
  -0.0742457,
  -0.485766,
  -0.550231,
  -0.487966,
  -0.132322,
  0.0076139,
  -0.111476,
  -0.202671,
  -0.225006,
  -0.181002,
  0.0531814,
  0.0385408,
  0.222756,
  0.00663516,
  0.170001,
  0.00857248,
  0.440861,
  0.0642605,
  0.0680752,
  0.110418,
  -0.108015,
  -0.281016,
  -0.3025,
  -0.0111251,
  -0.18557,
  0.117477,
  0.0865962,
  0.406151,
  0.0261009,
  0.0326326,
  0.0691096,
  0.261046,
  0.10409,
  0.0449832,
  -0.131897,
  -0.159499,
  -0.103901,
  -0.469601,
  -0.455687,
  0.219673,
  -0.181427,
  -0.0955703,
  -0.104312,
  -0.149665,
  0.24757,
  0.158875,
  0.268999,
  0.17053,
  0.081026,
  0.0918946,
  -0.0446811,
  0.130462,
  0.156079,
  0.129229,
  0.206527,
  0.0321558,
  -0.18141,
  -0.0425934,
  -0.00930458,
  -0.324611,
  -0.249267,
  -0.294801,
  -0.589993,
  -0.657086,
  -0.219898,
  -0.228057,
  -0.227661,
  -0.0804911,
  -0.220305,
  0.151115,
  0.0703417,
  0.0857236,
  0.0778738,
  0.0952553,
  0.329703,
  0.0876804,
  -0.184344,
  0.0979644,
  0.10427,
  0.094163,
  -0.0830456,
  -0.130109,
  -0.136004,
  -0.0035472,
  0.0850848,
  0.0342266,
  -0.145653,
  -0.141477,
  -0.0344636,
  0.239662,
  0.107966,
  0.229702,
  -0.149569,
  -0.0619638,
  -0.02789,
  -0.01284,
  0.262101,
  0.0832522,
  -0.000605123,
  -0.235881,
  -0.193411,
  0.0361114,
  -0.0050645,
  0.0250429,
  0.0342992,
  -0.0167032,
  -0.315779,
  -0.358263,
  -0.324541,
  0.193789,
  0.0505547,
  0.0145158,
  0.175413,
  0.167465,
  -0.000697168,
  0.000795007,
  -0.168355,
  -0.0126126,
  0.181505,
  0.0347728,
  -0.0979541,
  -0.335381,
  -0.468343,
  0.0877574,
  0.14955,
  -0.191705,
  -0.406046,
  -0.557797,
  -0.182945,
  0.0142484,
  0.165104,
  0.00639267,
  -0.139142,
  -0.0696066,
  0.0238972,
  -0.0443277,
  -0.0709261,
  0.229004,
  0.12901,
  0.00167104,
  -0.202815,
  -0.171186,
  -0.00929182,
  0.106956,
  0.122992,
  -0.0625642,
  -0.219354,
  -0.172289,
  0.0082775,
  -0.17676,
  0.0109565,
  0.140564,
  0.00441944,
  -0.109452,
  -0.0554901,
  -0.0171345,
  0.160763,
  -0.147249,
  -0.0539471,
  0.249627,
  -0.0646401,
  0.115784,
  -0.0425621,
  0.0790342,
  0.196991,
  0.0689544,
  0.169936,
  0.0686833,
  0.0769472,
  0.121823,
  -0.138447,
  0.271911,
  -0.0724137,
  -0.137237,
  -0.109279,
  -0.0165083,
  -0.281339,
  -0.273601,
  0.0628286,
  -0.101243,
  -0.315149,
  -0.430196,
  -0.240208,
  0.0613776,
  0.376551,
  0.122729,
  0.0401923,
  -0.110674,
  -0.128401,
  0.0761503,
  -0.203725,
  -0.151276,
  -0.0535991,
  -0.221683,
  0.200557,
  -0.145438,
  -0.228396,
  -0.178176,
  0.018557,
  -0.00376128,
  -0.169918,
  -0.438468,
  -0.32029,
  0.181192,
  -0.430305,
  -0.631839,
  -0.5409,
  -0.0491475,
  0.046666,
  -0.423689,
  -0.31722,
  -0.275147,
  -0.0832451,
  -0.251793,
  -0.0366,
  0.180331,
  0.122206,
  -0.143811,
  0.277807,
  0.210466,
  0.223358,
  0.120622,
  0.166687,
  -0.0488911,
  0.301982,
  0.0611168,
  -0.102022,
  0.0550298,
  -0.00817347,
  -0.190009,
  -0.0335873,
  0.0791916,
  -0.0714741,
  0.0494921,
  0.161296,
  0.123978,
  0.190674,
  0.0682054,
  0.152518,
  0.0554776,
  0.126423,
  -0.00323273,
  0.0801652,
  0.03403,
  -0.00017265,
  -0.109803,
  -0.059574,
  0.00521327,
  0.0295648,
  -0.190798,
  0.070578,
  0.0225668,
  -0.044772,
  -0.114346,
  0.0335298,
  0.165442,
  0.0144137,
  -0.181789,
  -0.0408719,
  0.0300684,
  0.0648823,
  -0.0886975,
  -0.118185,
  0.158692,
  0.117808,
  -0.120755,
  -0.472554,
  -0.0493737,
  0.0506801,
  -0.112783,
  -0.497332,
  -0.264167,
  -0.0994539,
  0.0751867,
  -0.3874,
  -0.26046,
  -0.0944746,
  0.0666109,
  0.155454,
  0.0693284,
  0.163863,
  0.0993348,
  -0.122169,
  0.0428448,
  0.215425,
  0.154583,
  -0.035916,
  0.11658,
  0.0495191,
  -0.066685,
  0.0353072,
  -0.0840011,
  -0.121673,
  -0.112159,
  -0.425786,
  -0.349849,
  -0.675107,
  -0.263102,
  0.0542624,
  -0.038933,
  -0.380716,
  -0.503052,
  -0.206904,
  0.049628,
  -0.143363,
  -0.22779,
  0.00336369,
  0.00508683,
  -0.067392,
  -0.0658175,
  -0.214251,
  -0.149025,
  -0.0413834,
  -0.0333651,
  -0.0457848,
  -0.169805,
  -0.128854,
  -0.0891627,
  -0.0652269,
  -0.166592,
  -0.0648536,
  -0.0893518,
  -0.0509712,
  0.156428,
  0.0498462,
  0.100759,
  0.192395,
  -0.163656,
  0.249011,
  0.242594,
  0.18258,
  0.223353,
  0.0283671,
  -0.147687,
  -0.391734,
  -0.31009,
  -0.214203,
  -0.178948,
  -0.41776,
  -0.0606386,
  0.149615,
  -0.0658281,
  -0.110702,
  -0.0645587,
  0.0124327,
  0.219201,
  -0.0391158,
  -0.215608,
  -0.0825,
  -0.0881569,
  -0.0269183,
  0.0893112,
  -0.0621199,
  0.152423,
  0.0181183,
  0.0158951,
  0.114494,
  -0.129088,
  0.279178,
  -0.193259,
  -0.0935702,
  -0.196788,
  -0.209708,
  -0.0865506,
  0.0120078,
  0.020576,
  0.0770981,
  -0.0384164,
  -0.0503246,
  0.00924495,
  -0.0334402,
  0.095594,
  0.167586,
  -0.0341293,
  -0.0692815,
  0.0921526,
  -0.0703334,
  0.129423,
  0.0662776,
  0.0833074,
  0.142034,
  0.100155,
  -0.268399,
  -0.0101549,
  -0.14223,
  0.0599051,
  -0.283827,
  -0.432079,
  -0.276005,
  -0.181697,
  0.0920217,
  -0.140927,
  -0.175793,
  -0.259769,
  -0.0324451,
  0.266299,
  -0.224311,
  -0.255341,
  -0.356012,
  0.0387624,
  0.296127,
  0.038772,
  -0.335499,
  -0.427819,
  0.0488754,
  0.06997,
  0.185801,
  -0.301612,
  -0.509269,
  -0.0759273,
  -0.0465069,
  -0.162255,
  -0.136034,
  -0.119093,
  0.101263,
  -0.271789,
  -0.601573,
  -0.379599,
  0.147058,
  -0.00185256,
  0.306035,
  0.0662875,
  -0.332138,
  0.109707,
  0.0509978,
  0.266994,
  0.180043,
  0.129603,
  -0.35112,
  0.332281,
  -0.075558,
  0.103825,
  0.0695395,
  0.0716296,
  -0.249846,
  -0.203156,
  -0.021024,
  0.387345,
  0.231954,
  0.29394,
  0.0915549,
  -0.14907,
  -0.120965,
  -0.0283201,
  0.158652,
  0.135209,
  -0.189461,
  -0.379415,
  -0.0400752,
  -0.0319969,
  -0.0726205,
  -0.124524,
  -0.0765808,
  0.0284962,
  -0.0143481,
  0.00383503,
  0.0376934,
  0.235667,
  0.242033,
  -0.460477,
  -0.3611,
  -0.0650829,
  0.321309,
  0.128589,
  -0.189581,
  0.0382517,
  -0.349227,
  -0.00512867,
  -0.138319,
  -0.00955648,
  -0.0683209,
  -0.0708019,
  -0.322925,
  -0.592609,
  -0.0569348,
  -0.0847976,
  -0.129599,
  -0.187072,
  -0.0520536,
  0.0170373,
  0.11065,
  0.0313671,
  0.0990667,
  0.08264,
  0.0103667,
  0.0819226,
  -0.150801,
  0.0357231,
  0.266428,
  -0.12068,
  -0.121806,
  0.0959915,
  0.202831,
  0.118826,
  -0.450198,
  -0.302511,
  -0.203512,
  -0.00531895,
  -0.0291195,
  -0.0421527,
  -0.46689,
  -0.580104,
  -0.382251,
  -0.144699,
  0.190498,
  0.0229376,
  -0.208888,
  -0.0468072,
  0.124952,
  0.0683795,
  0.0666411,
  0.180961,
  0.286691,
  -0.349183,
  0.0358792,
  -0.0228672,
  0.125497,
  -0.235274,
  0.0919588,
  0.121032,
  -0.319424,
  -0.415776,
  -0.65513,
  0.124827,
  -0.174754,
  -0.0147759,
  -0.266934,
  -0.482515,
  -0.39665,
  -0.0336852,
  0.301756,
  0.195029,
  -0.210488,
  -0.498683,
  0.155063,
  -0.0298029,
  -0.152874,
  -0.289162,
  -0.16898,
  0.0174568,
  0.0493237,
  -0.0712108,
  -0.319397,
  0.116811,
  -0.0602918,
  0.0838726,
  0.101457,
  -0.321668,
  -0.0316606,
  -0.0879235,
  0.0839045,
  0.143697,
  0.0595876,
  -0.460673,
  -0.120673,
  -0.182825,
  -0.0551842,
  0.106506,
  -0.0779327,
  0.162796,
  0.0231438,
  -0.0714008,
  -0.0085434,
  -0.100012,
  -0.141947,
  0.0878742,
  0.0796039,
  0.0425249,
  0.0478077,
  0.0730114,
  -0.0640497,
  -0.0389087,
  0.226903,
  0.259421,
  0.10915,
  -0.357978,
  -0.262381,
  0.0469024,
  0.0898639,
  -0.349242,
  -0.180411,
  -0.0387668,
  0.0270651,
  -0.0877156,
  -0.0680339,
  -0.4795,
  -0.505687,
  -0.0776567,
  0.17702,
  -0.127653,
  -0.682526,
  -0.478646,
  0.0264137,
  0.244049,
  -0.421893,
  -0.881466,
  -0.490664,
  0.104022,
  0.109907,
  -0.533224,
  -0.798913,
  -0.390248,
  0.0852662,
  0.0826761,
  -0.241408,
  -0.345344,
  -0.0780533,
  -0.0588156,
  0.0869339,
  -0.0823736,
  0.161262,
  0.315232,
  0.0391247,
  0.00681571,
  0.0165897,
  0.140314,
  0.133982,
  0.0290726,
  -0.158617,
  0.300731,
  -0.105266,
  -0.0962298,
  -0.188829,
  -0.273156,
  -0.276755,
  -0.180535,
  -0.130222,
  -0.168273,
  -0.0978956,
  -0.00177633,
  0.0250437,
  -0.219558,
  -0.200545,
  0.0309171,
  0.146096,
  0.0291938,
  -0.192497,
  -0.327851,
  -0.389955,
  -0.0716081,
  -0.191957,
  -0.11761,
  -0.335165,
  -0.0473474,
  -0.0633224,
  0.0904414,
  -0.0384886,
  -0.156028,
  0.28356,
  0.148393,
  0.0630729,
  -0.121051,
  0.0615434,
  0.188413,
  0.144915,
  0.0061414,
  -0.124422,
  -0.211975,
  -0.11086,
  0.103304,
  -0.717264,
  -0.715415,
  -0.467212,
  -0.254028,
  -0.66311,
  -0.931165,
  -0.35142,
  -0.0166331,
  0.125038,
  -0.313321,
  -0.144544,
  0.0963562,
  0.0861982,
  0.225989,
  0.10258,
  -0.0751067,
  0.0277993,
  0.09854,
  0.179803,
  0.0201359,
  -0.00771014,
  -0.0448712,
  -0.293146,
  0.241054,
  0.029665,
  -0.134164,
  -0.47102,
  -0.410797,
  0.0753118,
  0.0203581,
  -0.459101,
  -0.561888,
  -0.0924848,
  0.33716,
  0.0465547,
  -0.737822,
  -0.360284,
  0.0569896,
  0.16071,
  0.0351081,
  0.17396,
  -0.111759,
  0.0345966,
  0.0213966,
  -0.00919675,
  0.0156153,
  -0.137334,
  -0.054182,
  -0.180452,
  -0.0944078,
  -0.034962,
  -0.00347067,
  -0.437747,
  -0.439636,
  -0.102044,
  0.0321884,
  0.081232,
  0.00946055,
  -0.00918427,
  -0.0587617,
  -0.0342007,
  -0.116747,
  -0.000555759,
  0.0520478,
  -0.0922995,
  -0.0803954,
  -0.0632408,
  -0.0372311,
  0.0861917,
  0.0980709,
  -0.0698521,
  -0.0661637,
  -0.0858424,
  0.0652214,
  0.0860633,
  0.245423,
  0.197676,
  -0.100825,
  0.082896,
  0.0649077,
  0.065251,
  -0.204279,
  -0.192916,
  0.32888,
  -0.0690295,
  -0.0785458,
  -0.186268,
  -0.35212,
  -0.155785,
  0.00377915,
  0.0069054,
  0.00295953,
  -0.283597,
  0.333044,
  0.0232174,
  0.368498,
  0.0385053,
  0.000117178,
  0.261646,
  -0.0535239,
  -0.179015,
  -0.165363,
  -0.358048,
  -0.421403,
  -0.0740901,
  -0.0486254,
  -0.578223,
  -0.532646,
  -0.41745,
  -0.104625,
  -0.599727,
  -0.362821,
  -0.461919,
  -0.00803134,
  -0.259879,
  -0.57107,
  -0.420608,
  -0.084106,
  -0.00679045,
  -0.0483269,
  -0.161329,
  -0.217006,
  -0.127219,
  0.015243,
  0.132938,
  -0.0296823,
  -0.228691,
  -0.295694,
  -0.231232,
  -0.0370088,
  -0.0374162,
  -0.192168,
  -0.226693,
  -0.0377621,
  -0.0717793,
  -0.270418,
  -0.150871,
  0.199409,
  0.168768,
  -0.0223095,
  -0.0384385,
  0.133812,
  0.0933404,
  0.202966,
  -0.0989098,
  0.0624307,
  -0.0509273,
  0.209138,
  0.256171,
  -0.0508897,
  0.125616,
  0.12772,
  -0.403682,
  -0.188842,
  0.192419,
  -0.0312542,
  -0.354204,
  -0.329794,
  -0.364389,
  -0.024236,
  -0.205289,
  -0.188736,
  -0.325716,
  -0.179352,
  -0.00611328,
  -0.287445,
  -0.547337,
  -0.141413,
  -0.234499,
  -0.304595,
  -0.32294,
  -0.194687,
  -0.0950015,
  -0.356906,
  0.0263853,
  0.279726,
  0.163216,
  0.102668,
  -0.206238,
  0.0365753,
  0.133906,
  0.17027,
  0.0188624,
  -0.134909,
  0.0746199,
  0.260315,
  -0.432659,
  -0.434399,
  -0.266237,
  0.0679986,
  -0.124907,
  -0.406107,
  -0.42058,
  -0.254155,
  -0.382646,
  -0.572589,
  -0.394196,
  -0.294282,
  -0.197724,
  -0.209023,
  -0.305608,
  -0.20548,
  0.239989,
  0.0886492,
  -0.0509949,
  0.235418,
  0.265769,
  0.0885096,
  -0.0188095,
  0.17015,
  -0.158279,
  0.054476,
  -0.146579,
  -0.0896089,
  0.0434297,
  0.132518,
  -0.0627899,
  -0.126235,
  -0.0194284,
  -0.064798,
  0.163007,
  -0.218107,
  -0.213371,
  -0.211954,
  -0.126771,
  -0.358348,
  -0.602416,
  -0.258749,
  -0.203894,
  0.00280523,
  -0.527024,
  -0.0537287,
  0.14371,
  0.209414,
  -0.0756797,
  0.0953407,
  0.13784,
  0.0506673,
  0.0406059,
  0.084351,
  0.0417313,
  -0.0925581,
  0.0716376,
  0.128936,
  0.138788,
  -0.0595543,
  -0.00636731,
  -0.0260572,
  0.0731444,
  0.152632,
  -0.000971452,
  0.0676774,
  -0.109998,
  0.0857124,
  0.146248,
  0.0226348,
  -0.00182639,
  0.00391306,
  0.230681,
  0.0816981,
  -0.0181014,
  -0.0874292,
  0.134382,
  0.0189295,
  0.184324,
  0.236395,
  0.184271,
  0.256506,
  -0.0174155,
  0.0835356,
  0.369945,
  0.278891,
  0.0634761,
  0.145828,
  0.181029,
  0.0265049,
  -0.315379,
  -0.29802,
  -0.195308,
  0.0484589,
  -0.240818,
  -0.403034,
  -0.271263,
  -0.195022,
  0.00609121,
  -0.266605,
  -0.287437,
  -0.0735709,
  -0.101533,
  0.0476493,
  -0.272321,
  0.119557,
  0.0801494,
  -0.0127149,
  -0.0191946,
  -0.0557412,
  0.188909,
  0.229158,
  0.430674,
  0.0197059,
  0.18799,
  0.108969,
  0.0304442,
  -0.166596,
  -0.134181,
  -0.273628,
  -0.446189,
  -0.31686,
  -0.21975,
  -0.0325541,
  0.0281984,
  0.129189,
  0.262154,
  -0.0919808,
  0.0668536,
  0.212558,
  -0.0945175,
  0.0402836,
  -0.0115802,
  0.201952,
  -0.0895519,
  -0.0563841,
  -0.0291814,
  -0.122646,
  0.232224,
  0.0032853,
  0.142569,
  0.0565751,
  0.0916606,
  -0.159592,
  -0.0535247,
  -0.150505,
  -0.175278,
  -0.032649,
  -0.0860604,
  0.04551,
  0.219482,
  0.0359681,
  0.293093,
  0.191103,
  0.0579165,
  -0.155877,
  -0.163246,
  -0.0105464,
  -0.0100479,
  -0.0599298,
  0.0755189,
  0.28285,
  -0.0317272,
  0.151027,
  0.0965837,
  0.0834543,
  0.169394,
  -0.163582,
  -0.0195687,
  -0.0519269,
  -0.101024,
  -0.223576,
  -0.265227,
  -0.383833,
  -0.406769,
  -0.352006,
  -0.368357,
  -0.284603,
  -0.228081,
  -0.251179,
  -0.112514,
  0.050117,
  -0.265648,
  0.0895027,
  0.14978,
  0.108394,
  0.121255,
  0.175036,
  0.191295,
  0.0764429,
  0.0619315,
  -0.0511291,
  -0.0451488,
  -0.0445314,
  -0.0188302,
  -0.0214477,
  -0.0212355,
  0.0321814,
  -0.346713,
  -0.298663,
  -0.208965,
  -0.204104,
  -0.396314,
  0.191688,
  0.127403,
  -0.0111937,
  -0.150484,
  -0.0707562,
  0.106133,
  0.0659805,
  -0.0997944,
  -0.129559,
  -0.0957278,
  0.292223,
  0.14357,
  0.199126,
  -0.117563,
  -0.0687662,
  -0.117947,
  0.0390401,
  0.140963,
  0.110379,
  0.518563,
  -0.36134,
  -0.385214,
  -0.628784,
  -0.478272,
  -0.215491,
  0.0859712,
  -0.0368132,
  0.00830548,
  -0.0174876,
  0.087091,
  0.126509,
  0.131397,
  0.0560749,
  0.0713543,
  0.142139,
  -0.0853836,
  0.0569404,
  0.0171302,
  -0.28245,
  -0.0061965,
  -0.0765573,
  -0.104988,
  0.216693,
  0.197955,
  0.216686,
  0.0513903,
  0.28698,
  0.0491946,
  0.0455242,
  0.383885,
  0.134101,
  0.199417,
  -0.0164807,
  -0.164115,
  0.000463444,
  -0.245757,
  0.125675,
  -0.0256107,
  -0.156937,
  -0.384708,
  0.132838,
  -0.012179,
  -0.306059,
  -0.233928,
  0.12188,
  0.203482,
  -0.046501,
  -0.165261,
  -0.389952,
  -0.0537614,
  8.40776e-05,
  0.0378654,
  -0.0343769,
  -0.0654775,
  -0.238413,
  0.0516148,
  0.17202,
  -0.00355137,
  0.103054,
  -0.166093,
  -0.0404276,
  -0.0922512,
  -0.00593758,
  -0.0833125,
  0.0132243,
  -0.0472364,
  -0.27992,
  -0.287657,
  -0.334923,
  0.00119416,
  -0.21692,
  -0.488688,
  -0.62768,
  -0.598151,
  -0.179487,
  -0.223541,
  -0.478755,
  -0.56495,
  -0.514323,
  -0.136565,
  -0.180169,
  -0.0872833,
  -0.0911537,
  0.203096,
  0.0439076,
  0.0825951,
  0.10654,
  0.137515,
  0.174923,
  0.118033,
  0.134026,
  0.0123526,
  -0.0739286,
  -0.000271552,
  0.186475,
  -0.0781943,
  -0.220583,
  -0.179172,
  -0.241212,
  -0.162753,
  -0.458641,
  -0.405628,
  -0.276844,
  -0.80486,
  -0.335227,
  -0.440357,
  -0.301477,
  -0.399526,
  -0.845363,
  -0.41531,
  -0.246798,
  -0.183864,
  -0.624315,
  -0.791793,
  -0.312376,
  0.126936,
  -0.175964,
  -0.0919996,
  -0.0278177,
  0.0838938,
  -0.210956,
  0.0706384,
  0.0786197,
  0.0482459,
  -0.0155492,
  -0.119285,
  -0.223556,
  -0.219524,
  -0.105079,
  -0.113239,
  0.178151,
  -0.206348,
  -0.221411,
  -0.0879272,
  0.0579876,
  0.113304,
  -0.481727,
  0.0728582,
  0.0415918,
  -0.0477625,
  -0.0184619,
  0.00237764,
  0.184715,
  -0.00352888,
  0.135853,
  -0.0284616,
  0.0818203,
  -0.0784007,
  -0.0630706,
  0.056522,
  -0.107125,
  0.0807501,
  -0.368408,
  0.0305676,
  0.073054,
  0.106059,
  0.0352992,
  -0.53195,
  0.057047,
  0.0595334,
  0.0405734,
  -0.108787,
  -0.573448,
  0.37572,
  0.153624,
  0.0736171,
  0.211182,
  0.246745,
  0.0716698,
  -0.180723,
  0.0873134,
  0.108301,
  0.0267775,
  -0.141929,
  -0.0279026,
  0.0532423,
  -0.00584512,
  -0.274401,
  -0.250225,
  0.0277685,
  0.0141773,
  -0.213223,
  -0.508168,
  -0.145576,
  -0.0651222,
  0.0484292,
  -0.400207,
  -0.382039,
  -0.0480455,
  -0.0483801,
  0.0709527,
  0.124474,
  0.31406,
  0.227426,
  -0.0916405,
  -0.00981228,
  -0.0444852,
  -0.00659402,
  -0.0369054,
  -0.200293,
  0.0112654,
  0.0623679,
  0.0335354,
  -0.021277,
  -0.17624,
  0.0112822,
  0.0208571,
  0.0480995,
  0.0176888,
  0.0556678,
  0.176427,
  0.0530218,
  0.0888685,
  0.181177,
  0.061363,
  -0.0935617,
  -0.0653836,
  -0.0357569,
  -0.00976597,
  0.181201,
  -0.140246,
  -0.0918866,
  -0.011082,
  0.0721667,
  -0.337613,
  -0.139317,
  -0.398589,
  -0.219039,
  -0.0941137,
  -0.387746,
  -0.347393,
  -0.246532,
  -0.474936,
  -0.462927,
  -0.113801,
  -0.130606,
  -0.186983,
  -0.535707,
  -0.676402,
  -0.22339,
  0.0921108,
  0.135556,
  0.171573,
  -0.333942,
  -0.290666,
  0.246275,
  -0.149228,
  -0.278208,
  -0.0726551,
  0.291797,
  0.0147227,
  0.370566,
  -0.1793,
  0.0485643,
  0.122876,
  0.232889,
  0.18398,
  -0.272591,
  -0.0463323,
  0.096106,
  0.149782,
  -0.238515,
  -0.151022,
  -0.0707781,
  -0.0107907,
  0.118565,
  0.0526536,
  -0.0227351,
  -0.036763,
  -0.00692686,
  0.132351,
  -0.0374319,
  -0.260307,
  0.0990621,
  0.0483984,
  -0.0374304,
  -0.0646809,
  -0.058811,
  0.0823981,
  -0.0535061,
  -0.0249908,
  -0.287467,
  0.114414,
  0.171802,
  0.111598,
  -0.220502,
  -0.56598,
  0.0894728,
  0.134214,
  0.451399,
  0.0632062,
  0.0227454,
  0.065666,
  -0.0706353,
  -0.521097,
  -0.0138689,
  0.0910898,
  0.102632,
  -0.322461,
  -0.578152,
  0.0508946,
  0.0257188,
  -0.266993,
  -0.0964937,
  0.187479,
  -0.00327443,
  0.0162392,
  0.132166,
  0.087005,
  -0.0334821,
  -0.00558602,
  0.130796,
  0.128506,
  -0.0191327,
  -0.145344,
  0.210783,
  0.118416,
  -0.0905575,
  -0.155474,
  -0.0723624,
  0.0107028,
  -0.102996,
  -0.290867,
  0.0850638,
  0.0262288,
  -0.682652,
  -0.386794,
  -0.186078,
  4.89516e-05,
  0.0054935,
  -0.389486,
  -0.0756669,
  0.295198,
  -0.0372572,
  0.199161,
  -0.560621,
  -0.0254608,
  -0.072798,
  -0.108271,
  0.0596515,
  -0.0939454,
  -0.0592546,
  0.00606571,
  -0.220619,
  -0.600079,
  0.055181,
  0.155889,
  -0.182367,
  -0.576627,
  -0.665691,
  -0.0429834,
  -0.0881743,
  -0.614579,
  -0.673182,
  -0.372238,
  -0.16615,
  -0.346912,
  -0.662363,
  -0.326683,
  -0.0421259,
  -0.0904291,
  -0.168417,
  -0.188898,
  0.106006,
  -0.0635191,
  -0.342683,
  0.00379797,
  -0.0467631,
  -0.237547,
  -0.227342,
  -0.0536521,
  0.0805286,
  0.0885515,
  -0.175333,
  -0.503816,
  -0.109685,
  0.0928105,
  -0.048477,
  -0.578046,
  -0.124051,
  0.0243407,
  0.0734489,
  -0.0390035,
  -0.00249073,
  0.0199569,
  0.081186,
  0.0644099,
  -0.00824976,
  0.00811706,
  -0.0788622,
  -0.06919,
  -0.0739966,
  -0.196611,
  -0.259941,
  -0.168724,
  0.373629,
  0.381247,
  -0.201373,
  -0.346459,
  -0.175674,
  0.164543,
  0.130078,
  0.0242634,
  -0.214314,
  0.203575,
  -0.277371,
  -0.263583,
  -0.260524,
  0.146011,
  0.0827727,
  0.155341,
  0.124787,
  0.0545673,
  0.251591,
  0.0537549,
  -0.00313082,
  0.107318,
  -0.0654049,
  -0.461389,
  -0.332751,
  0.0192718,
  -0.0376504,
  -0.136919,
  -0.311798,
  0.291587,
  0.0806289,
  -0.106711,
  0.233785,
  0.173811,
  -0.0043589,
  -0.0364107,
  0.185189,
  0.16719,
  -0.0435542,
  0.0587311,
  0.0376757,
  0.183075,
  0.0528571,
  0.0550198,
  -0.316256,
  0.099755,
  0.190765,
  0.309467,
  0.0712169,
  -0.122605,
  0.195863,
  0.185628,
  0.0637613,
  -0.0653654,
  0.250625,
  0.0907941,
  0.141414,
  0.0732882,
  0.0987619,
  -0.00476471,
  0.0532342,
  0.0684976,
  0.0465386,
  0.0246633,
  0.191811,
  -0.00551692,
  0.0299326,
  0.254685,
  0.369203,
  0.183093,
  0.162597,
  0.203373,
  -0.0413637,
  -0.477947,
  -0.707937,
  0.139362,
  0.0730648,
  -0.45957,
  -0.672269,
  -0.233128,
  0.104855,
  -0.185584,
  -0.764766,
  -0.262388,
  0.0789392,
  0.0458402,
  -0.195823,
  -0.371589,
  -0.0054229,
  0.24152,
  0.0943082,
  -0.0284908,
  -0.00802907,
  -0.0152788,
  0.0431364,
  0.0996066,
  0.0209397,
  0.0452625,
  0.027685,
  0.0792197,
  0.0467817,
  0.0532885,
  0.0510428,
  -0.145032,
  -0.490322,
  -0.234478,
  -0.0979922,
  -0.0697593,
  -0.340488,
  -0.346836,
  0.056132,
  0.295896,
  0.00659812,
  -0.0955038,
  0.0719589,
  0.220811,
  -0.120466,
  -0.0759446,
  -0.0351668,
  -0.0101608,
  -0.0610571,
  0.129763,
  -0.136946,
  0.00731386,
  -0.29679,
  0.192998,
  0.14563,
  -0.0793545,
  -0.176055,
  -0.0247826,
  0.00228662,
  -0.0373987,
  -0.220304,
  -0.0879149,
  0.00417714,
  0.170868,
  -0.0548664,
  0.17616,
  0.0681428,
  -0.148104,
  -0.024469,
  0.125064,
  -0.0921837,
  -0.024153,
  0.0378853,
  0.281809,
  0.209399,
  0.114759,
  0.0572825,
  0.20875,
  0.13062,
  0.052049,
  -0.0725107,
  -0.16798,
  -0.268492,
  0.0607324,
  -0.1602,
  -0.153024,
  -0.340337,
  -0.357934,
  -0.193237,
  -0.47192,
  -0.579793,
  -0.553752,
  -0.198933,
  -0.0534142,
  0.0169926,
  0.0193026,
  -0.100813,
  -0.127158,
  -0.09854,
  0.0806743,
  0.0566424,
  0.0456824,
  0.0565842,
  0.217067,
  0.0701439,
  0.260903,
  -0.0173304,
  -0.00541207,
  -0.0801297,
  -0.298918,
  -0.446856,
  -0.560452,
  -0.0828457,
  -0.282014,
  -0.121404,
  -0.363124,
  -0.299788,
  -0.0387035,
  0.109279,
  -0.0476296,
  -0.146517,
  -0.173128,
  -0.157174,
  0.192093,
  0.272603,
  0.144924,
  0.193741,
  0.237061,
  0.338867,
  0.25843,
  0.0921134,
  0.172502,
  0.219397,
  -0.00962297,
  0.110191,
  0.134386,
  0.0336123,
  -0.197583,
  -0.51257,
  -0.539991,
  -0.568252,
  -0.50474,
  -0.34073,
  -0.277003,
  -0.265648,
  -0.241265,
  -0.19888,
  -0.0213994,
  0.0683467,
  0.200786,
  0.063186,
  -0.0489432,
  -0.367239,
  -0.137681,
  0.0715083,
  0.284148,
  0.181195,
  0.2245,
  0.0116583,
  0.292116,
  0.350969,
  0.148434,
  0.142548,
  0.137563,
  -0.0368903,
  -0.147937,
  -0.0488811,
  -0.140556,
  0.148719,
  -0.00677313,
  0.00166213,
  -0.0950688,
  -0.253296,
  0.0395273,
  0.0318986,
  0.181442,
  0.0951741,
  -0.096786,
  0.0777353,
  0.0116856,
  -0.278468,
  -0.122379,
  -0.115558,
  -0.105674,
  -0.0202709,
  -0.102602,
  -0.0229063,
  0.0614374,
  0.112558,
  0.123276,
  0.173858,
  0.15931,
  -0.0075413,
  -0.00854635,
  0.105173,
  0.169136,
  0.128018,
  0.155911,
  0.188629,
  0.217962,
  0.139799,
  -0.00724053,
  -0.0388999,
  0.0211548,
  -0.156778,
  -0.501774,
  -0.541856,
  -0.115949,
  -0.204681,
  -0.475692,
  -0.57781,
  -0.389659,
  -0.229031,
  -0.0997564,
  -0.198299,
  -0.0964421,
  -0.0685068,
  0.054734,
  0.0509893,
  -0.156038,
  0.0753488,
  -0.0997623,
  0.0431515,
  -0.537364,
  -0.597943,
  -0.33207,
  -0.00381211,
  0.115238,
  -0.120835,
  -0.682573,
  -0.264997,
  0.229982,
  0.0128803,
  0.193292,
  -0.0564452,
  -0.260661,
  0.0869879,
  -0.035411,
  0.30018,
  -0.0377441,
  0.0960311,
  -0.120802,
  -0.015232,
  0.303256,
  0.157719,
  0.245817,
  0.0124977,
  0.112989,
  -0.219255,
  -0.163797,
  0.0942673,
  0.17311,
  0.0367024,
  0.0270587,
  0.174936,
  -0.0501644,
  -0.0218827,
  0.0161117,
  0.0798916,
  0.0665668,
  0.21671,
  0.141988,
  -0.0778234,
  -0.0284555,
  0.158351,
  0.122431,
  0.0472535,
  0.0950254,
  0.299532,
  0.00254867,
  -0.135772,
  -0.317131,
  -0.389863,
  0.0339188,
  0.0421305,
  0.0508988,
  -0.0654045,
  0.0264446,
  -0.0919087,
  0.209315,
  0.145722,
  0.00659747,
  -0.0213586,
  -0.308013,
  -0.217671,
  0.16573,
  0.0375717,
  -0.0530663,
  -0.0726488,
  -0.171522,
  -0.175249,
  -0.0172562,
  -0.0233625,
  -0.0128512,
  -0.0880604,
  -0.292194,
  -0.201339,
  0.116004,
  -0.365768,
  -0.214926,
  0.00646729,
  0.0560569,
  0.0462326,
  -0.809488,
  -0.0366483,
  0.198722,
  0.0852172,
  -0.0397537,
  -0.788327,
  -0.755009,
  -0.462607,
  -0.365376,
  -0.103443,
  0.0214583,
  -0.0181474,
  -0.144912,
  0.0244047,
  -0.0264522,
  0.116913,
  0.0283103,
  0.0785102,
  0.0134888,
  0.0805354,
  -0.169751,
  -0.109287,
  -0.0426626,
  0.23246,
  0.0439953,
  -0.37628,
  -0.0790422,
  0.160636,
  0.162467,
  0.0484804,
  -0.373094,
  -0.0995472,
  -0.00610348,
  -0.234553,
  -0.249009,
  -0.0319942,
  -0.167884,
  -0.47729,
  -0.25719,
  -0.0438648,
  0.339841,
  0.0523556,
  0.112537,
  -0.0417907,
  0.0776784,
  -0.407236,
  -0.310398,
  0.114618,
  0.133387,
  0.0960476,
  -0.205572,
  -0.575451,
  -0.564625,
  -0.235504,
  0.0868966,
  0.00941016,
  -0.026883,
  -0.304252,
  -0.213932,
  -0.162152,
  0.0257532,
  0.234721,
  -0.230514,
  -0.0563162,
  0.0830841,
  0.249371,
  0.300056,
  0.197562,
  -0.0206244,
  -0.0356649,
  -0.408927,
  -0.185497,
  0.209313,
  0.145932,
  0.0375938,
  -0.490221,
  -0.632483,
  -0.185365,
  -0.0301938,
  -0.250451,
  -0.418128,
  -0.491765,
  -0.265207,
  -0.0400227,
  -0.150385,
  -0.266388,
  -0.00392855,
  0.223751,
  0.0468353,
  -0.0141818,
  0.383088,
  0.267363,
  0.208466,
  0.307408,
  -0.102205,
  -0.0488267,
  0.0927504,
  0.114698,
  -0.00760308,
  -0.115709,
  -0.257871,
  0.287451,
  0.079906,
  0.115082,
  0.0631613,
  -0.470531,
  -0.145639,
  0.0412202,
  0.133906,
  0.0923781,
  -0.144331,
  -0.145746,
  -0.0680273,
  -0.0322289,
  -0.0619503,
  0.0548087,
  -0.102943,
  -0.0862839,
  -0.0758742,
  -0.0868907,
  -0.632261,
  -0.651344,
  -0.146823,
  -0.0351568,
  -0.0263423,
  -0.00913954,
  -0.068706,
  0.145261,
  0.179927,
  0.0395521,
  0.0331257,
  0.0138934,
  0.0604515,
  0.0873948,
  -0.0839128,
  0.0327681,
  0.026495,
  -0.0220941,
  -0.41435,
  -0.426519,
  -0.0934387,
  -0.33689,
  -0.146835,
  -0.280199,
  -0.187233,
  0.245261,
  0.176971,
  0.140256,
  0.159419,
  0.0776001,
  0.204675,
  0.228576,
  0.0904538,
  -0.10739,
  -0.217255,
  0.00766905,
  0.0537464,
  -0.117707,
  -0.41666,
  -0.295582,
  -0.106999,
  0.208922,
  -0.178934,
  -0.350684,
  -0.180212,
  -0.103458,
  -0.101746,
  -0.26415,
  -0.0455779,
  -0.0339899,
  0.239566,
  0.368878,
  -0.08256,
  0.0100454,
  -0.114881,
  -0.324361,
  -0.270856,
  0.0356686,
  0.100386,
  -0.0665397,
  -0.103317,
  -0.108243,
  -0.164876,
  -0.219405,
  -0.235164,
  0.0148787,
  -0.201012,
  -0.445251,
  -0.129079,
  0.0629388,
  -0.0122837,
  -0.0660383,
  -0.156458,
  -0.0814422,
  -0.287642,
  -0.194719,
  0.0816278,
  0.0577412,
  -0.0304471,
  0.33959,
  -0.204531,
  -0.364274,
  -0.172538,
  -0.0526878,
  0.108905,
  -0.237244,
  -0.164166,
  0.0616678,
  -0.0373181,
  0.102165,
  -0.121938,
  -0.0280251,
  0.0846076,
  -0.0669125,
  -0.166825,
  0.365509,
  0.198111,
  -0.124773,
  -0.23365,
  -0.26584,
  -0.141556,
  0.0235982,
  0.0721077,
  0.032685,
  0.0866321,
  -0.212849,
  -0.206281,
  -0.092234,
  -0.184028,
  0.038714,
  -0.170423,
  -0.316433,
  -0.342464,
  -0.0793806,
  0.0357848,
  -0.402155,
  -0.266483,
  -0.0144072,
  -0.103525,
  -0.0164885,
  0.0624441,
  0.0201093,
  0.0154178,
  -0.0450043,
  -0.142992,
  0.101001,
  0.0799214,
  0.277132,
  -0.00379152,
  0.227897,
  0.103364,
  0.124419,
  0.225698,
  0.0500057,
  -0.137592,
  0.0800723,
  0.111701,
  -0.0575082,
  -0.242525,
  -0.323991,
  -0.226524,
  -0.370738,
  -0.31789,
  -0.156985,
  -0.116125,
  -0.346558,
  -0.264577,
  -0.00072585,
  -0.0441758,
  -0.130657,
  0.00535682,
  -0.159007,
  -0.240961,
  -0.208785,
  -0.12812,
  0.133114,
  0.18183,
  0.098473,
  0.0477131,
  0.138981,
  0.162847,
  0.0779174,
  0.153532,
  0.0304959,
  0.0982362,
  -0.0590372,
  0.144233,
  0.0464358,
  -0.203546,
  0.0858891,
  -0.0535537,
  -0.00233354,
  -0.161312,
  -0.0216101,
  0.137841,
  -0.156464,
  -0.132325,
  -0.104275,
  -0.143999,
  0.0448505,
  -0.284381,
  -0.0340897,
  0.123564,
  0.212051,
  -0.113881,
  0.126947,
  -0.246432,
  -0.133949,
  -0.0955605,
  -0.0973451,
  0.0201339,
  -0.114035,
  -0.115487,
  -0.0183239,
  -0.0911681,
  0.139612,
  0.0754381,
  -0.328647,
  0.00869992,
  -0.0627971,
};
